{"options":{"hidden":5,"hidden_sizes":[4,2,2,5,7],"initial_weights":"widrow","input":2,"output":1,"learn_rate":1,"activation":"sigmoid","max_iteration":99999,"use_best":true,"est_error":0.005,"console_logging":{"show":true,"step":1000,"show_iter":true,"show_error":true,"show_weights":false,"show_w_deltas":false},"min_e_result_data":"min_err_res_data.dat"},"weights":{"i0_h0_0":1.2802807308175268,"i0_h0_1":-3.5484113015952365,"i0_h0_2":-3.0020830573681008,"i0_h0_3":-2.973288621109665,"i1_h0_0":5.283393050103576,"i1_h0_1":8.774225310343933,"i1_h0_2":-7.607772560776764,"i1_h0_3":-1.2337249928153255,"h0_0_h1_0":3.0301930302904974,"h0_0_h1_1":1.596849735290718,"h0_1_h1_0":-0.8445887735098172,"h0_1_h1_1":-4.949650114090566,"h0_2_h1_0":-5.407678977528587,"h0_2_h1_1":-0.9771551844246533,"h0_3_h1_0":-1.5642096907088054,"h0_3_h1_1":3.501659550037599,"h1_0_h2_0":-3.4934118511162295,"h1_0_h2_1":0.902181764195627,"h1_1_h2_0":-3.1269727030701655,"h1_1_h2_1":4.2019568240973015,"h2_0_h3_0":-1.4437137403012308,"h2_0_h3_1":2.7970902553209105,"h2_0_h3_2":2.9403437692643206,"h2_0_h3_3":-3.5518395408434587,"h2_0_h3_4":-0.4928825697250234,"h2_1_h3_0":2.5321711806609795,"h2_1_h3_1":-2.0811888381671673,"h2_1_h3_2":-2.011413622618162,"h2_1_h3_3":1.8723147857740938,"h2_1_h3_4":-1.6588284782651457,"h3_0_h4_0":-1.16840085619575,"h3_0_h4_1":0.9546444544078398,"h3_0_h4_2":0.8969222783748735,"h3_0_h4_3":-0.8498647572586623,"h3_0_h4_4":0.04141984434920384,"h3_0_h4_5":-1.4052452360344796,"h3_0_h4_6":0.9986207382545768,"h3_1_h4_0":1.8235270166244169,"h3_1_h4_1":-1.3500146425596533,"h3_1_h4_2":0.07155330210152902,"h3_1_h4_3":1.5922767321513178,"h3_1_h4_4":-1.0058285401186178,"h3_1_h4_5":0.6980362430215118,"h3_1_h4_6":-1.383043854830423,"h3_2_h4_0":0.7442993774254197,"h3_2_h4_1":-1.064330301498898,"h3_2_h4_2":-0.8744009183290518,"h3_2_h4_3":1.6695393188892096,"h3_2_h4_4":-0.036488347484629834,"h3_2_h4_5":1.3488255611553976,"h3_2_h4_6":-2.1864114854064236,"h3_3_h4_0":-0.7701130654462571,"h3_3_h4_1":1.2853567009744615,"h3_3_h4_2":0.5303510503268074,"h3_3_h4_3":-2.369319416105685,"h3_3_h4_4":0.42830321691465945,"h3_3_h4_5":-1.4952883154830432,"h3_3_h4_6":1.4633550529102461,"h3_4_h4_0":-0.20280990686264236,"h3_4_h4_1":0.5358012602244251,"h3_4_h4_2":-0.34181555440722866,"h3_4_h4_3":0.7143591462024976,"h3_4_h4_4":0.5075998018587117,"h3_4_h4_5":0.41277070463288,"h3_4_h4_6":-0.24916364995135742,"h4_0_o0":-2.1382453795987204,"h4_1_o0":2.0870885668110297,"h4_2_o0":0.9363809024372779,"h4_3_o0":-4.094661058389403,"h4_4_o0":0.6143404398659712,"h4_5_o0":-2.4241172494200187,"h4_6_o0":3.0017808843839426,"bias_h0_0":0.8133097091072244,"bias_h0_1":2.582546676750312,"bias_h0_2":1.4103037597664885,"bias_h0_3":2.4322270046213976,"bias_h1_0":2.237375691615262,"bias_h1_1":1.5341815684203184,"bias_h2_0":2.5769535947101225,"bias_h2_1":-3.207425496403938,"bias_h3_0":-1.4161712768421113,"bias_h3_1":-0.38185916396171127,"bias_h3_2":-0.3616234360916807,"bias_h3_3":-0.7464839805327861,"bias_h3_4":-0.7177283232361911,"bias_h4_0":-0.4970321605401324,"bias_h4_1":-0.7796035491354683,"bias_h4_2":-0.7833626631342931,"bias_h4_3":-1.2124231194507211,"bias_h4_4":-0.025176710155071755,"bias_h4_5":0.3966843631744889,"bias_h4_6":-0.7311448095179814,"bias_o0":0.5163550012740369}}