{"options":{"hidden":5,"activation":"bipolar_sigmoid","hidden_sizes":[4,2,2,5,7],"input":2,"output":1,"learn_rate":0.7,"initial_weights":"standard","max_iteration":99999,"use_best":true,"est_error":0.005,"console_logging":{"show":true,"step":1000,"show_iter":true,"show_error":true,"show_weights":false,"show_w_deltas":false},"min_e_result_data":"min_err_res_data.dat"},"weights":{"i0_h0_0":-1.1714798280520473,"i0_h0_1":0.48765818712205744,"i0_h0_2":0.43421761165987294,"i0_h0_3":-2.2907799583782005,"i1_h0_0":-0.9867181073962877,"i1_h0_1":-0.14401905865699322,"i1_h0_2":-0.5112860151059166,"i1_h0_3":-2.216913621051293,"h0_0_h1_0":-1.024351564985117,"h0_0_h1_1":0.4756229655607438,"h0_1_h1_0":0.2001621286973976,"h0_1_h1_1":0.1561644696507492,"h0_2_h1_0":-0.5563994583861188,"h0_2_h1_1":0.23012151660514044,"h0_3_h1_0":-3.179221843325774,"h0_3_h1_1":1.621045292920798,"h1_0_h2_0":-2.203627799968801,"h1_0_h2_1":2.4766562526237514,"h1_1_h2_0":0.9586825062192723,"h1_1_h2_1":-1.0030204426427833,"h2_0_h3_0":0.7036470803990629,"h2_0_h3_1":0.5993241879968829,"h2_0_h3_2":2.3190416103209435,"h2_0_h3_3":-0.9716466124194911,"h2_0_h3_4":-0.9975873786606358,"h2_1_h3_0":-0.7141860281188921,"h2_1_h3_1":-0.9595981863449531,"h2_1_h3_2":-2.6671026105832274,"h2_1_h3_3":0.4301818598667131,"h2_1_h3_4":1.1235178851516228,"h3_0_h4_0":-0.6320804988341063,"h3_0_h4_1":-0.1061904845050585,"h3_0_h4_2":0.26225702794999906,"h3_0_h4_3":-0.13829430656674313,"h3_0_h4_4":0.7671574038579638,"h3_0_h4_5":-0.09751436555591293,"h3_0_h4_6":0.3109984237185556,"h3_1_h4_0":-0.5736424708263476,"h3_1_h4_1":-0.6068778354411667,"h3_1_h4_2":0.9507715557331989,"h3_1_h4_3":0.2941123326444651,"h3_1_h4_4":0.1729453564017244,"h3_1_h4_5":-0.04595712033509983,"h3_1_h4_6":0.4448219623139101,"h3_2_h4_0":0.5773429276276973,"h3_2_h4_1":0.10432863172533717,"h3_2_h4_2":-0.5704892296799539,"h3_2_h4_3":1.5306337976741147,"h3_2_h4_4":-1.1104478408530942,"h3_2_h4_5":0.568857102700954,"h3_2_h4_6":2.081061519662674,"h3_3_h4_0":0.4667014047168086,"h3_3_h4_1":0.12694948905601772,"h3_3_h4_2":-0.5203219905944554,"h3_3_h4_3":-0.30043618927875254,"h3_3_h4_4":-0.9151853735858668,"h3_3_h4_5":0.07290353455672903,"h3_3_h4_6":-0.21112092054319706,"h3_4_h4_0":0.021561148546721934,"h3_4_h4_1":0.40531664359427944,"h3_4_h4_2":-1.2899009142720266,"h3_4_h4_3":0.4556958206166554,"h3_4_h4_4":-0.88108832035463,"h3_4_h4_5":-0.44299735425051934,"h3_4_h4_6":-0.058116050811142704,"h4_0_o0":-0.9203138270712193,"h4_1_o0":-0.5085028118669928,"h4_2_o0":1.6933171710811785,"h4_3_o0":-1.0592282824907484,"h4_4_o0":1.8375053518856153,"h4_5_o0":-0.1134335283453591,"h4_6_o0":-1.4616481507217491,"bias_h0_0":0.30917648852007285,"bias_h0_1":-0.1857976110897672,"bias_h0_2":0.5881741041750806,"bias_h0_3":2.2006357789526687,"bias_h1_0":-0.6483920702262773,"bias_h1_1":-0.24968397879577334,"bias_h2_0":-0.15569080880607183,"bias_h2_1":0.2997255903721331,"bias_h3_0":0.23836270006343419,"bias_h3_1":0.03615270976669405,"bias_h3_2":-1.453035602438673,"bias_h3_3":-0.23190490998866173,"bias_h3_4":-0.7424527202561668,"bias_h4_0":-0.13111304997897025,"bias_h4_1":-0.35823461730804707,"bias_h4_2":-0.03146814074084673,"bias_h4_3":-0.29297436832890267,"bias_h4_4":-0.6089563607837591,"bias_h4_5":-0.20982340623985443,"bias_h4_6":-0.6298999450275293,"bias_o0":-0.3779349111291743}}