{"options":{"hidden":5,"activation":"bipolar_sigmoid","hidden_sizes":[4,2,2,5,7],"input":2,"output":1,"learn_rate":0.7,"initial_weights":"standard","max_iteration":99999,"use_best":true,"est_error":0.005,"console_logging":{"show":true,"step":1000,"show_iter":true,"show_error":true,"show_weights":false,"show_w_deltas":false},"min_e_result_data":"min_err_res_data.dat"},"weights":{"i0_h0_0":-0.6706778425969908,"i0_h0_1":1.1723390948363692,"i0_h0_2":-2.4536192445142735,"i0_h0_3":-0.5861866886736713,"i1_h0_0":-0.5203909847291568,"i1_h0_1":1.0299726539445233,"i1_h0_2":-2.4420630713539495,"i1_h0_3":-0.9215684341422082,"h0_0_h1_0":0.9594839691493517,"h0_0_h1_1":-0.2403351100044638,"h0_1_h1_0":-1.8041517184559839,"h0_1_h1_1":-0.5114915599180936,"h0_2_h1_0":1.3628091687629367,"h0_2_h1_1":3.9090281819604638,"h0_3_h1_0":1.2544446527215705,"h0_3_h1_1":0.12060417202484756,"h1_0_h2_0":-0.13333584453846942,"h1_0_h2_1":2.8821062698144457,"h1_1_h2_0":-3.5097720534913712,"h1_1_h2_1":0.35764570474842844,"h2_0_h3_0":1.906528817147031,"h2_0_h3_1":1.082841484386401,"h2_0_h3_2":-0.6471901235817495,"h2_0_h3_3":-0.5010572209387033,"h2_0_h3_4":0.42067247367443344,"h2_1_h3_0":0.5476499384926657,"h2_1_h3_1":0.8509055221342346,"h2_1_h3_2":-1.612662251080472,"h2_1_h3_3":-1.626730729961135,"h2_1_h3_4":-0.10374893328858319,"h3_0_h4_0":0.4346160993313048,"h3_0_h4_1":-0.23766323391459623,"h3_0_h4_2":0.14437693268705057,"h3_0_h4_3":-1.2255896510069175,"h3_0_h4_4":0.08203973741984683,"h3_0_h4_5":-0.8839750831071785,"h3_0_h4_6":-0.593119988992356,"h3_1_h4_0":0.26061616689533124,"h3_1_h4_1":0.5005774725897043,"h3_1_h4_2":-0.20036591695041028,"h3_1_h4_3":-0.7597283287924869,"h3_1_h4_4":-0.1358764706656426,"h3_1_h4_5":-0.7750548504655734,"h3_1_h4_6":0.01551378585048145,"h3_2_h4_0":-0.45733112833655215,"h3_2_h4_1":-0.28245271122162086,"h3_2_h4_2":-0.466386631531485,"h3_2_h4_3":0.7208973411138118,"h3_2_h4_4":0.3478597964660541,"h3_2_h4_5":0.9293141174243099,"h3_2_h4_6":0.34297889635736295,"h3_3_h4_0":-0.2525433951964514,"h3_3_h4_1":0.32178372261052623,"h3_3_h4_2":-0.36408363923657294,"h3_3_h4_3":0.8820745464007946,"h3_3_h4_4":0.4969995798436176,"h3_3_h4_5":0.9045674562490814,"h3_3_h4_6":0.4447971674521916,"h3_4_h4_0":0.05070363273426421,"h3_4_h4_1":0.4322310878035388,"h3_4_h4_2":0.4151144108481838,"h3_4_h4_3":0.46180842947354894,"h3_4_h4_4":-0.3618093937835167,"h3_4_h4_5":-0.34522774314160554,"h3_4_h4_6":-0.05604613473168962,"h4_0_o0":0.7470000187371841,"h4_1_o0":0.1582986532515809,"h4_2_o0":0.3868602189885483,"h4_3_o0":-1.6959795899299193,"h4_4_o0":-0.3925831631285045,"h4_5_o0":-1.6222234375728797,"h4_6_o0":-0.5438993087965018,"bias_h0_0":0.4618814525050089,"bias_h0_1":-1.230140125416405,"bias_h0_2":1.9827462290711717,"bias_h0_3":0.5834863028275514,"bias_h1_0":1.0886406675464881,"bias_h1_1":-0.5452093290433335,"bias_h2_0":0.40235697304318585,"bias_h2_1":0.3219299740176749,"bias_h3_0":-0.17713152306567825,"bias_h3_1":-0.1619553331635165,"bias_h3_2":0.18795067348749783,"bias_h3_3":0.23218594540063844,"bias_h3_4":0.4091471155363076,"bias_h4_0":0.29748563715742987,"bias_h4_1":-0.1850075923769554,"bias_h4_2":0.07798586651307325,"bias_h4_3":0.13695663224972668,"bias_h4_4":0.16608204806239146,"bias_h4_5":0.4897338962715516,"bias_h4_6":0.3603794814318827,"bias_o0":0.5426290706454469}}