{"options":{"hidden":5,"activation":"bipolar_sigmoid","hidden_sizes":[4,2,2,5,7],"input":2,"output":1,"learn_rate":0.7,"initial_weights":"standard","max_iteration":99999,"use_best":true,"est_error":0.005,"console_logging":{"show":true,"step":1000,"show_iter":true,"show_error":true,"show_weights":false,"show_w_deltas":false},"min_e_result_data":"min_err_res_data.dat"},"weights":{"i0_h0_0":-0.29177514967099305,"i0_h0_1":2.1727978778705204,"i0_h0_2":0.2810625567890575,"i0_h0_3":-0.5390470782991328,"i1_h0_0":0.03300419329092494,"i1_h0_1":2.107969937381685,"i1_h0_2":-0.23416236158313106,"i1_h0_3":-0.574429015146368,"h0_0_h1_0":0.18657072356497398,"h0_0_h1_1":-0.14541344680820528,"h0_1_h1_0":2.8178214329610527,"h0_1_h1_1":2.109143083899411,"h0_2_h1_0":-0.07370979444789887,"h0_2_h1_1":-0.48412634467147486,"h0_3_h1_0":-0.6578274271867729,"h0_3_h1_1":-0.11000007390005635,"h1_0_h2_0":1.5868307415952183,"h1_0_h2_1":2.755646856032971,"h1_1_h2_0":1.6127891301943051,"h1_1_h2_1":1.6047352884559019,"h2_0_h3_0":-0.7726120735387201,"h2_0_h3_1":1.9240740005245078,"h2_0_h3_2":0.4110917148224628,"h2_0_h3_3":-0.8259881365143156,"h2_0_h3_4":1.2723783415696888,"h2_1_h3_0":-2.109870884143793,"h2_1_h3_1":-0.006517188548830756,"h2_1_h3_2":1.9658300711826686,"h2_1_h3_3":-0.5353031354438823,"h2_1_h3_4":-0.4808424670166957,"h3_0_h4_0":-0.6707509044471649,"h3_0_h4_1":-1.7599773932721814,"h3_0_h4_2":-0.16670730861504449,"h3_0_h4_3":0.0484027045019589,"h3_0_h4_4":-0.41723819327181316,"h3_0_h4_5":-0.23864566241789273,"h3_0_h4_6":-0.20994543362847562,"h3_1_h4_0":0.18621055477359713,"h3_1_h4_1":0.1619382649368681,"h3_1_h4_2":-0.3479221562551922,"h3_1_h4_3":0.3118140479170639,"h3_1_h4_4":-0.9197464134430072,"h3_1_h4_5":0.8292656953456647,"h3_1_h4_6":-1.4712409022269373,"h3_2_h4_0":-0.09746068607070413,"h3_2_h4_1":1.66704971144516,"h3_2_h4_2":0.31212453738369783,"h3_2_h4_3":0.17177753471736518,"h3_2_h4_4":0.42280924262278463,"h3_2_h4_5":-0.3419518302940354,"h3_2_h4_6":0.18059980198466852,"h3_3_h4_0":-0.35990053172803754,"h3_3_h4_1":-0.7405641451436601,"h3_3_h4_2":-0.11842183888603822,"h3_3_h4_3":-0.36772010778392067,"h3_3_h4_4":0.2984679166593396,"h3_3_h4_5":-0.5130437261292232,"h3_3_h4_6":0.6612788670481341,"h3_4_h4_0":0.03683520727017004,"h3_4_h4_1":-0.6685374593223146,"h3_4_h4_2":-0.6201282523459491,"h3_4_h4_3":0.03229609162588298,"h3_4_h4_4":-0.4554139846179721,"h3_4_h4_5":0.7656070666262352,"h3_4_h4_6":-0.9218954945240126,"h4_0_o0":-0.11684988784274056,"h4_1_o0":1.8454969516220918,"h4_2_o0":0.4937582532103982,"h4_3_o0":-0.43091070578889157,"h4_4_o0":1.0928582756477094,"h4_5_o0":-1.1173287143442294,"h4_6_o0":1.7799905656748418,"bias_h0_0":-0.21718702449514865,"bias_h0_1":-1.9312016186746954,"bias_h0_2":0.3487146034237782,"bias_h0_3":0.10495838421990933,"bias_h1_0":-0.3427682765312647,"bias_h1_1":-0.41698799096385564,"bias_h2_0":-0.9444388408044203,"bias_h2_1":1.016828432657725,"bias_h3_0":-0.6821522559626492,"bias_h3_1":0.03756410584903594,"bias_h3_2":0.6526707799019261,"bias_h3_3":-0.27728972886757136,"bias_h3_4":0.4197250965443321,"bias_h4_0":0.19924104160204786,"bias_h4_1":0.5384398641691427,"bias_h4_2":0.18466528593618917,"bias_h4_3":0.10472241170294921,"bias_h4_4":-0.12317871202896799,"bias_h4_5":0.028452648323309855,"bias_h4_6":0.08274774362035997,"bias_o0":-0.27911468625721303}}